{"layer_sizes":[1,12,1],"hidden_activation":"tanh","output_activation":"linear","W":[[[1.0]],[[-0.9572742704915946],[0.0017740439904678504],[0.9450815772978104],[-0.0010207302240269225],[0.9721550818370204],[1.3711498037047078],[-1.3210890504253214],[1.2586645743023361],[0.008920732276056756],[-1.2014685793699051],[-0.000060592216716098075],[-0.9571751710292994]],[[0.7591505716853348,-0.0001514674721829526,0.7414197245011521,-0.0001934658787555317,0.776824757080036,-1.3071383377728323,-1.252147227434388,1.1853242219903952,0.00028370983544612503,1.125542266519727,0.0002266836154866943,0.7590207581138535]]],"b":[[[0.0]],[[-1.01414447298594],[-0.7345096301803719],[-0.99922996612205],[-0.008724158755876807],[-1.028415961810954],[-4.32970782556423],[-4.175479359396417],[3.983500455811917],[-0.003524117578950869],[3.807832251843597],[0.0016984636293599358],[-1.0140376566162848]],[[-2.456350433202506]]],"a":["linear","tanh","linear"],"mu_x":[[0.0]],"mu_y":[[0.0]],"sigma_x":[[1.0]],"sigma_y":[[1.0]]}