{"layer_sizes":[1,12,1],"hidden_activation":"tanh","output_activation":"linear","W":[[[1.0]],[[-0.9623960243366775],[-0.0012403527173668529],[0.9401871854224277],[0.003753289534751735],[0.9685745570387325],[1.3782670457779858],[-1.3140327821134314],[1.2516183088383808],[0.0005634737224902058],[-1.2066804948882441],[-0.00041221419302745404],[-0.9622972896664738]],[[0.7667909556737411,-0.0012750456888135208,0.7327908444385389,-0.0006056055969122822,0.7698506495485247,-1.3128314924163829,-1.2482484956689226,1.1815276704874842,0.000043218610993966974,1.129274212771333,0.0006396786271067652,0.7666610142136411]]],"b":[[[0.0]],[[-1.0108177735367547],[-0.7988735081483165],[-1.0013042012571596],[-0.011749522529525063],[-1.0318906860664117],[-4.325634014715413],[-4.181133379979527],[3.98942220529056],[0.03285711775785902],[3.798478704061989],[-0.003313064230306122],[-1.010710689065477]],[[-2.4566056767153115]]],"a":["linear","tanh","linear"],"mu_x":[[0.0]],"mu_y":[[0.0]],"sigma_x":[[1.0]],"sigma_y":[[1.0]]}