{"layer_sizes":[1,12,1],"hidden_activation":"tanh","output_activation":"linear","W":[[[1.0]],[[-0.9597197236223558],[-0.008359345450496271],[0.9442993395613785],[0.009267181787018759],[0.970047285116961],[1.3700547927692073],[-1.3155374238254423],[1.2526341513666097],[-0.0072061544347526655],[-1.2052189039659698],[-0.005879515812874308],[-0.959609417700803]],[[0.7622274360385463,-0.001455925156630614,0.7386137991059087,-0.0026734160350554764,0.7724061258007413,-1.3072389873061492,-1.2505500408196137,1.183271462640615,0.0010194232478486875,1.130821448000496,0.013717606362776389,0.7620817221317079]]],"b":[[[0.0]],[[-1.0137194613564362],[-0.8355681712373595],[-1.0019157075494043],[-0.019033409836472403],[-1.0295578549627604],[-4.322575630010451],[-4.181582701363544],[3.9882038965129047],[0.019333686325830032],[3.816108719781322],[-0.009882481425315552],[-1.0136003583402853]],[[-2.453497023095331]]],"a":["linear","tanh","linear"],"mu_x":[[0.0]],"mu_y":[[0.0]],"sigma_x":[[1.0]],"sigma_y":[[1.0]]}