{"layer_sizes":[16,16,16,16,16,16,1],"hidden_activation":"tanh","output_activation":"linear","W":[[[1.0,0.0,0.0,0.0,0.0,0.0,0.0,0.0,0.0,0.0,0.0,0.0,0.0,0.0,0.0,0.0],[0.0,1.0,0.0,0.0,0.0,0.0,0.0,0.0,0.0,0.0,0.0,0.0,0.0,0.0,0.0,0.0],[0.0,0.0,1.0,0.0,0.0,0.0,0.0,0.0,0.0,0.0,0.0,0.0,0.0,0.0,0.0,0.0],[0.0,0.0,0.0,1.0,0.0,0.0,0.0,0.0,0.0,0.0,0.0,0.0,0.0,0.0,0.0,0.0],[0.0,0.0,0.0,0.0,1.0,0.0,0.0,0.0,0.0,0.0,0.0,0.0,0.0,0.0,0.0,0.0],[0.0,0.0,0.0,0.0,0.0,1.0,0.0,0.0,0.0,0.0,0.0,0.0,0.0,0.0,0.0,0.0],[0.0,0.0,0.0,0.0,0.0,0.0,1.0,0.0,0.0,0.0,0.0,0.0,0.0,0.0,0.0,0.0],[0.0,0.0,0.0,0.0,0.0,0.0,0.0,1.0,0.0,0.0,0.0,0.0,0.0,0.0,0.0,0.0],[0.0,0.0,0.0,0.0,0.0,0.0,0.0,0.0,1.0,0.0,0.0,0.0,0.0,0.0,0.0,0.0],[0.0,0.0,0.0,0.0,0.0,0.0,0.0,0.0,0.0,1.0,0.0,0.0,0.0,0.0,0.0,0.0],[0.0,0.0,0.0,0.0,0.0,0.0,0.0,0.0,0.0,0.0,1.0,0.0,0.0,0.0,0.0,0.0],[0.0,0.0,0.0,0.0,0.0,0.0,0.0,0.0,0.0,0.0,0.0,1.0,0.0,0.0,0.0,0.0],[0.0,0.0,0.0,0.0,0.0,0.0,0.0,0.0,0.0,0.0,0.0,0.0,1.0,0.0,0.0,0.0],[0.0,0.0,0.0,0.0,0.0,0.0,0.0,0.0,0.0,0.0,0.0,0.0,0.0,1.0,0.0,0.0],[0.0,0.0,0.0,0.0,0.0,0.0,0.0,0.0,0.0,0.0,0.0,0.0,0.0,0.0,1.0,0.0],[0.0,0.0,0.0,0.0,0.0,0.0,0.0,0.0,0.0,0.0,0.0,0.0,0.0,0.0,0.0,1.0]],[[-0.041921031829355,0.16790702990407774,-0.20000236954550782,-0.09728009121603552,0.27010983037825975,0.23980695917848197,0.040890536029992604,0.013459294195654713,0.03632389018858242,-0.07945492079735926,-0.06693514692766153,-0.013610469492422228,-0.02387764067787882,-0.02566061641615496,-0.02474263837669434,0.006045631202891366],[0.8618783077322096,0.05478089189901582,0.01550589366056359,0.04561462821915501,0.017227579843283585,-0.0043563523026021915,0.0036441767418376697,-0.027356524217090502,-0.03681347478644015,-0.04627048166432933,0.00729544542752399,0.03702204800025101,0.03227096965317563,0.08228349102012805,0.16382935690769204,0.018212589486461237],[0.6006042810490209,-0.11950652770893909,-0.019000186442197246,0.058539936501337306,0.1324826798100264,0.09077026523346332,-0.039437041550267934,-0.06605419822847312,-0.008716282436737553,0.010849256476810504,0.058649453216146216,0.03256201264575673,0.003397266567826223,-0.01705169943628945,-0.013128495101942379,0.0382021839358261],[0.6044903511839863,0.3976826704143185,0.027338656900360716,0.04543339143518893,0.0325497364194472,0.04937551575357495,0.04386189951459628,0.055073816410436655,0.04695002880549367,0.1199605708053153,0.20487709744447685,-0.10984849371476618,-0.21652187190085181,-0.052749648296989186,-0.05669503342572865,-0.051475586921557334],[-1.08649647387495,-0.3127389950499403,-0.025336945943446404,-0.044150421206308244,-0.030424009302066266,-0.01088068672777042,-0.019383243143447016,-0.020933156289175806,-0.03918933310232597,0.07368833146799435,-0.1166474069659367,-0.3216031532325042,-0.20255453122538183,0.029395993910258836,0.09129411092389673,0.055462417465819536],[0.13859542193139807,-0.04204842682203727,0.06587208185356136,0.05634691460613785,0.13621013526079234,0.11137473306830813,0.017849423499093443,-0.013978594265607644,0.029761246539704276,0.12046934318479519,0.13085138456648268,0.10431221076133267,0.04023258541045238,0.04367715646059327,0.0030043422799851264,-0.09104630515450073],[-0.881725133951169,0.3013599191152267,-0.05539954866656054,-0.242113082282764,-0.09371155890067832,0.19771298666806233,0.10808849646929196,-0.03207674146622539,0.05809189358021901,-0.050992925230557484,-0.09584274140859,-0.05957552485850431,-0.028767465330241788,-0.020491517147122447,-0.029729947445056835,-0.003335507204973716],[-0.7778019701338591,0.16796709422108344,0.028637474284982267,0.027366744063218883,0.037481143960356865,-0.07057990992826818,-0.21960755015732747,-0.10231637399003489,-0.006873343502170063,-0.03165467784800901,-0.0071082988045163935,0.01748257185023367,-0.0022955010172862026,0.008997767421525764,-0.014348289199883268,0.01902190862323471],[-0.3806152752466029,-0.24407919893945593,0.008537562518270965,0.003635447318821438,-0.044240019070954734,-0.06365417519761368,-0.022270582087945013,0.01318922075241983,-0.4111611428730708,-0.050975890448973375,-0.10752680773328324,0.003972736556164499,0.08064885106215543,0.0745660817878189,0.044756232297859376,0.03856085737115286],[-0.07932495244863949,0.062316094845742964,-0.023550455995841182,-0.011983374676730578,-0.006823244705599375,0.043894171278980584,0.004785495995005659,0.014126166519557141,0.025635098791520254,-0.024412742181303966,0.0425915395085416,0.007422811138030025,-0.030579668881643735,-0.05538393999416032,0.08167829478735314,-0.33827616326661114],[0.06121928657540997,0.21273061702103857,0.06135009650359932,0.0566675312411005,0.04016303168227858,0.032749960681785505,0.04605062315201422,0.020485821847920367,0.05666907557403388,0.24147272747735704,-0.17959054969306648,-0.22599743138310818,-0.05891454629349904,-0.0615918575547979,-0.05512804326642044,-0.05180140770082952],[-0.6072913739468194,-0.2377470953213556,-0.02839818393189766,-0.05818937457545864,-0.06392474483402459,-0.026643743064479714,-0.005485376121401763,-0.04515543685909554,0.031983365447095326,-0.028783479059643857,-0.14930545573326687,-0.06656705909049354,0.02969222228558882,0.03293128100013416,0.01595210433706212,-0.0144389001254424],[-0.21644615691568275,-0.1312217944635828,-0.00006178257988848971,0.05849562070818158,0.022134581287793893,0.002702453317151791,0.09302603029110723,0.04952526555905041,0.04099020781188491,-0.001772712106149209,0.037916490035527155,0.07255012916440316,0.06390751504707756,0.05228909564555979,-0.022563369925169892,-0.41716071082568196],[-0.12178788678230852,-0.18883135661796988,0.26759762807308,-0.11252258656190747,-0.367569021571183,-0.15110081751272836,-0.017019612763991623,-0.017865149779348152,-0.04687702915438003,0.09717496223702461,0.06398051386902853,-0.029843303951669745,-0.005748103619112311,0.009743669103433111,-0.0014804495191336582,0.01926047366481981],[-0.11617098637701116,-0.04017421547490243,-0.005085207932384747,-0.001286450686520794,0.014074423811218914,0.011515975740626775,-0.007123240937899118,-0.006170273000009824,-0.0011971539389838458,0.03931532644404214,-0.07679765699553553,-0.13299251860412584,0.06669203758740823,0.1970042332720933,-0.025543388815484652,-0.02126900341092215],[-0.510212414712471,-0.09160836138460463,-0.006893947742069218,-0.011654682081578428,-0.024741357090329884,-0.01821417510441018,-0.007777162506790735,0.009135622744616951,0.005878649562973487,0.04420917952738724,0.07837215285496651,-0.11477880780009408,-0.22780359825265406,-0.09087030874652588,0.0910197765089618,0.00034683030006931565]],[[-0.22701441905811806,0.15767911648272442,-0.33023425197986744,-0.40450779623730626,0.28964651022169186,0.1395423587681642,0.18401176962833757,0.23848563667785114,-0.182920496164945,-0.17801765282390733,-0.9464473015305283,-0.021581367952691798,0.13637015292895077,-0.16433459965151176,-0.36969141081201723,-0.5064856732699621],[0.07357881189248969,0.145186301023142,-0.4499398073193787,0.328665511952882,0.22335723112191652,-0.2390679414050871,0.125136842432103,0.029235945708028514,-0.24262793160640692,0.0561588222514057,0.19808846127487909,-0.6878178114775009,0.016584622427736527,0.05347515990657477,0.10616437324997093,-0.24319999924129942],[0.020697198815367062,0.23396563699422815,0.2629101813849147,0.4401789098910747,-0.4062844506747745,0.0831380604282725,0.0554964006019992,-0.19192072056491102,-0.057226283141829384,-0.011458039104135348,-0.4653567227796134,-0.046470687659486976,-0.04721907722783897,-0.055068835673619074,-0.09219268674125511,0.7439218665761747],[0.029479492060728266,-0.6265729749407665,0.18771075538844934,-0.3819534660370549,0.8163587119192239,0.03541802814653911,0.07231431848903787,-0.002232941914414416,-0.052363986360931584,0.08801926590174515,0.14654936914347447,-0.17961231586270635,0.13725279983362498,-0.018387919069284196,-0.8398224936972248,0.42648557129225456],[0.1485445981151206,0.034655736402434474,-0.09553736461865506,-0.2848150610231292,-0.3572690494666617,-0.021233674780087804,0.2538431496615163,-0.31395470034380135,0.20859686259807164,0.37022663331293,-0.23407564330463027,0.03959697368695578,-0.2203274928985531,0.19584856971405587,-0.2419806308014349,0.013137445664957928],[0.2620139977925996,0.11373109685912448,-0.7374560788780493,0.046334305204826585,-0.23899257137470253,-0.2028214080685938,0.3802339509092817,-0.3680197279832671,0.0014632747883064879,-0.21887291089831526,-0.15677130583263474,0.40271818594915487,0.0844293616802345,0.17737924879176248,-0.11049393286546494,0.05534005698996302],[-0.05894743993778505,-0.05421821072644042,1.0222944113864487,-0.0845687302616715,-0.041424409412153244,0.5217386855647099,-0.5735061128519185,0.5545405905952591,0.08271301396535839,0.38750252779107575,0.15750569150592392,-0.049201182814761865,-0.5069464459019555,-0.3034826277879908,0.1907238805064563,0.011580055455317775],[0.2675697043695293,-1.21621748140849,0.16771377654599998,0.032792123685947715,0.18647988721661496,-0.3163386031386328,0.07162390473708563,-0.006212662501603997,0.0377390539922281,-0.7838205567064346,-0.14569118077454757,0.06465340164584911,0.4590150473750769,0.06463512316564984,-0.06125416282055691,0.06519465001329369],[-0.21755847146842,-0.07944928517830031,-0.904012082974629,-0.019303539235552194,-0.03796544514578635,-0.2113602779164639,-0.6707191296790356,0.4904714205243219,-0.1762124421175323,0.0455691425745876,0.08663812763970129,-0.2917639131744348,-0.1727587404798794,-0.05355119251365949,0.05133536554365261,0.1849456426661458],[-0.14764887761648637,0.44205269426272237,0.2885152500132384,0.2707434866984701,-0.13399741361570877,-0.027795843957838524,0.30764302839473084,-0.6214780883261045,-0.12948512292186198,-0.248755497421025,0.15087933329772885,-0.474371846468615,0.2932506293416753,-0.04482994637005986,0.02590557890997296,-0.028361742475816652],[0.6873306002536044,-0.2981525006280095,-0.21033135664915378,0.1267896140367541,0.17095426865203886,0.05475437955362399,0.11766086400113793,-0.09437925451321466,-0.057477208399906554,0.48273485037568353,-0.17870327977714193,0.1975757865511955,-0.17917192034634424,0.08776292415321983,0.20661185950245275,-0.2175433073163227],[-0.04004227080424552,-0.31778851755899457,-0.003463169562385137,0.12391497678274954,-0.46072785543213296,-0.045966623129371956,-0.04051742589190917,-0.18860710267355932,-0.048254819882040195,0.1692596300139408,0.061037213071274694,-0.3932781751749352,-0.14531153129954458,-0.03522399991864934,-0.3212914155330771,-0.5785721788894465],[-0.02045434597539561,-0.3940128958670412,0.2911110225420543,0.6180988088273649,0.12589530867200785,-0.05688842059072258,0.22060778170534898,-0.09713996372720617,-0.16202702854752038,-0.08933321698622869,0.29583983757273635,0.3286237613003063,0.21274041412666952,0.018842933745016152,-0.08875184982739003,0.1591956825614903],[-0.13396665100791483,-0.3809375934345824,-0.4727577371003261,-0.013656785828116205,0.15621698876347448,0.6049962773091186,0.0393131782993709,0.24175981876292196,0.010421182143231126,-0.0869031110693091,0.162898177796601,-0.7540595144488896,0.026985831642828192,-0.06757711597957897,-0.13060875603524846,0.33664939426305684],[0.02005139454406921,0.7472494895744374,-0.16021303450901747,-0.15257723323303862,0.09248692734715554,0.04341953463983842,0.15144909074027968,-0.09128209836946326,-0.04762818797717444,0.41761943879966473,0.3730636774559888,-0.0010239728698405155,-0.3317462328186644,-0.22546066742988816,-0.08474397660451466,0.36347406131721977],[0.04897836346457869,0.8497359142126577,0.5695863422495251,0.05952464094441997,0.3589019695683283,-0.5605203753233026,0.0862741612223822,-0.13644107302843364,-0.032201486599856596,-1.2979156484052505,0.1182332822333759,-0.7468337925804622,-0.8841455712718765,0.010046199079334812,-0.4972999358827404,-0.1319885800876163]],[[0.4416231915826977,0.1393396473427683,0.11273121318192315,0.07172204028072901,0.2851677000030721,-0.49283604298649525,0.05470870989959869,-0.6117940880106305,-0.20196154624550436,0.1628893196136447,-0.26859399469049217,-0.17719032524049255,0.011931788280531581,-0.07981626284416757,0.3379152610246715,0.06419049241890908],[-0.15178745388314507,-0.047241763694764606,0.9356845308850584,0.034504920985733836,0.40260782605319007,0.16461029812597341,-0.1629211653647439,-0.043608981072046984,0.12787687005230108,-0.3104900873428056,-0.08221434620335669,0.2276579543668946,0.32995216887249684,0.029930047469541202,-0.28513221320432725,-0.3023798582779541],[-0.22245801874785814,-0.15418878368163866,0.10730996414936439,0.012694628781608519,0.2971982708761419,0.4586223129245988,0.5534806139498496,-0.077059010377824,-1.0131271989713742,0.5152340247417108,-0.03435207101147841,-0.10970898324203572,0.3946724571928829,-0.47293303942928305,-0.046902007659663986,-0.055945271963381275],[-0.6015794433742195,0.3642623585369145,0.2212766734828444,0.36552468145550454,-0.24108696958921522,-0.19683702096913716,0.17406048105288047,-0.012366871594990465,-0.33906343090463376,0.06938321956138446,-0.4010631473315438,-0.26805573878256367,0.1635474751099564,0.06329785979013418,0.21127316425053233,-0.014914295348742772],[0.04521566862085354,0.425067903985767,0.27706056002997426,-0.05746728237936261,-0.3303747880031399,0.19946776986393205,0.027810549650635237,0.1100110803994615,0.20682307275220868,-0.16336792591882637,0.22988240218338438,0.3146353802062993,0.26474815387406325,-0.9018705361568988,0.04809791014491223,0.05501470577340596],[-0.19122749180870963,-0.15383989800057982,-0.1231733235291153,-0.18290011607871837,0.1622261179062396,0.4583253444053531,-0.19641956993651177,0.025253667410374072,-0.23314093777209063,0.03961765317510675,0.17890403728337195,-0.4717222713244719,-0.08222613311996407,-0.262334747001796,0.16005703320920792,0.09388436270831026],[0.26161942847779335,0.33728018406601973,-0.2548909164120337,-0.06655939422220435,-0.4862303384261392,-0.24344271221179142,-0.042227724430518275,1.148389300002671,-0.3220090734418918,-0.047776530094279776,-0.024588700457455304,-0.21811481120257836,0.05637360343824816,-0.01314240576561878,-0.6759384568311216,-0.14874263547358876],[0.035145284312121744,-0.13193190078879924,-0.0965370306227602,-0.17169252258350523,0.1567265601401359,0.3160369855382454,0.24080764232156646,0.31828616261477183,-0.12257063558265528,-0.2886567659450746,-0.4471468523134763,-0.5904584986416438,-0.005637215556382904,0.1721195318321948,0.0901568887866419,-0.05090198131957297],[-0.249307595376584,0.08316860940424485,-0.16604197034728108,-0.24395114061937065,-0.12985718382360972,-0.056201170716988734,-0.05601103245484207,0.13931755740386045,-0.24437259571545858,0.33171806351381405,-0.025707521994790036,0.3445365037634324,0.2563901599036866,-0.15069353309718117,0.02152299562520375,1.100043153342452],[0.3444270544506351,0.09124455607467281,-0.038535476769571475,-0.27462074579278817,0.03519990684860415,-0.32074100830707925,0.12100554029631098,-0.01458500845888244,0.33484538359721067,0.4920894606959188,-0.3786682897244252,0.048862306200229744,-0.25413917758579896,-0.20881890218131366,-0.15103908054101078,0.010741075837564734],[0.19412047222351075,0.039366432686383124,0.35644384630670867,0.295096193906844,0.16822608315512155,-0.2079621763955769,-0.24609388376806826,0.1773183457878326,-0.397559311884022,0.5047699625205613,-0.27796168833363993,0.0570410726036409,-0.1106018903321044,0.09138198628542138,-0.20047330429226085,0.3257477072622125],[0.030469122564608868,0.6197239322676361,0.05658712940001051,0.02299150388240608,0.46217754333689026,-0.1181417045614885,-0.09300031604309074,0.27818636625719245,-0.5010169259475876,0.20208157466532672,0.452174783113705,0.2771486966101647,-0.33069202043957907,0.5163526343255768,0.008519860235964006,-0.195988476499192],[-0.19094691643795073,-0.3168004986167786,-0.0196314319862414,0.5061600932769625,-0.12382675450892205,0.1633975842650102,-0.2111955433539174,0.21570986406130674,-0.0800844324649048,-0.5524063142874693,0.002419548367732148,-0.16578322352836442,-0.3006364781516081,0.27934290146972707,0.21559534623189472,-0.01054550718627691],[0.035933038256731886,0.5350828080599794,0.4249376088675501,-1.0102296728454396,0.0006830468331086649,0.027183687538428626,-0.03507794874434179,-0.6642572368115027,0.042774891928434505,0.15877778033026016,0.22956358954627532,-0.2829683633710634,-0.3257147645377481,0.20205439333476052,0.2684518622735744,0.1638798230650305],[0.1141952983647506,-0.15405217410064007,0.3120694857109272,0.3140734425756185,-0.29638558534723064,-0.12539676117182466,0.31070087643253913,-0.15029141845700486,-0.07182573082955947,-0.5196667341309795,-0.001037606408952132,0.4652286457572395,0.5218046501093531,0.27610140912781256,-0.29923939751391965,0.12409965875664694],[0.20986544386161035,-0.03830839803621144,0.06514827295595481,-0.15874674999604263,-0.09386057604000989,-0.45735938619628647,0.16064438790415253,-0.0074612006552085,-0.44728590165152554,-0.1721198444973535,0.3222850223109375,-0.37106066711732755,-0.12568181957952662,-0.05004328871282994,0.09686312535145478,-0.11846580714731543]],[[0.15209902230933828,-0.8759980897915135,0.035188467506239884,0.33464881634923843,0.20180021870577058,0.19832987905707014,0.06697872887432488,-0.06966526720898807,-0.2776836460261465,0.12584555016172339,0.2180444333588572,0.49843219707871866,-0.1725204527836054,0.22631940988334368,-0.4091739848310439,0.19622592336146472],[0.14287381620345707,0.16297661400274435,0.1529295562280418,-0.13898462300858422,-0.1412339274207328,-0.11837463604903938,0.4174427228087262,0.006395414742681373,-0.08179367467874372,0.30852929848384947,0.20693564219265564,0.04005972663923815,-0.44859020392060583,0.8079594959747811,-0.036308970405431754,0.2620981280522404],[0.1098607342648904,-0.30590900970868923,0.8835925384800509,0.3420092043565521,0.16722089973679524,-0.11673339152603866,0.10072469976439043,0.017179455144515302,0.03290705775629177,0.2916715769879761,0.2171004895813602,0.3198370352091006,-0.06388624931336852,-0.15830472928400255,-0.25485651127862546,0.1242733050150152],[-0.0004911934400479836,-0.003491995896567239,-0.0018240822506917168,0.00010155706278635695,0.000691927850078575,-0.007495755081598067,-0.0004404934569998473,-0.0015562983690427003,-0.001653508083387621,-0.006056657326008288,0.001842632305236166,-0.0007800593806437939,-0.0014815465782337435,0.00016872117440911913,-0.00044914920517628095,-0.0008333883894686734],[-0.3966363797946211,0.18598211791298797,-0.09953043275350928,0.1313678142838192,-0.054068196493385665,0.1637783523318047,0.018490995018835804,-0.14778541102348408,0.4333793840070583,-0.39741373751078174,0.22211507296159466,0.1775505989874059,-0.06300631179281738,-0.11715759623576523,-0.1766145247495816,-0.19811893212691964],[0.42844290028565096,0.12559895855363373,-0.23731002559646497,0.12100075122996523,0.21413888149255456,-0.5142144804916433,-0.10583437489949962,-0.4327850567810589,0.12496406748177674,0.17343530454748887,0.5591591480509088,0.2674183445370639,0.18036412940063362,-0.6713624724225566,0.025211133497737133,0.09724468854297559],[0.5199614691054479,-0.13975810192251434,-0.19565757365595077,0.3358221694654223,0.08361137494288852,-0.16190292892374095,0.36241363793644454,-0.04744116663409314,-0.3653077955044377,-0.15989767028474827,0.010794515729332183,0.17052350172617936,-0.049660439242493304,0.2646991019979277,0.02512907751899118,0.5664085237171945],[0.38413304714674806,0.12233761159868696,-0.21620590302591194,0.3024342563368009,0.42687863837019907,-0.35922253322000536,-0.10715612605864881,-0.13459599903308542,0.0855931500206612,0.26557104976901447,-0.05185459260988756,0.5231219140972712,-0.4682190862916345,-0.40347347057428684,0.3297913828644314,-0.19873884394053967],[0.07834274598180604,0.1561116529228714,0.5355839191347196,-0.37082372697171206,0.23749412088632282,-0.055405816862230506,-0.15036042417738188,0.2257116044563579,0.2915264498920171,-0.5541290060765345,0.0074132637308102186,-0.05306777570123768,0.28277396845548874,-0.09985562758011722,0.41518418985722494,0.15084727179768492],[0.0635847027576867,-0.16348074926988765,-0.19003431984791622,-0.12693696073399935,0.10789029304910762,0.1038029962472168,0.6915990981593607,0.4785556113829031,-0.3443723044460461,-0.020963317472915445,-0.1360609894709129,-0.18102887673256088,0.20465301909984168,-0.2817632571744002,0.011740172819225504,-0.15618935023545585],[0.2316911437314547,-0.03358426874148742,-0.07794004106815636,0.12821848989941573,0.13968610967217657,-0.15301745145272566,-0.07372164078546767,-0.05076165411336932,0.07412674063099321,0.36028295642297953,-0.035833410738886004,0.007891845633864594,0.07766247478239949,-0.264351936759519,0.43657968660418034,0.2085918247368968],[-0.015858403095523072,0.06462802902213653,0.06844132090602104,0.03320445313289161,0.2095501924913375,0.06402028044865221,-0.36966484339846867,-0.25914709351680104,0.09533138935923567,0.3106927025858254,0.25539598415671017,-0.09715315776822786,0.18983193257730185,-0.1105743769072981,0.3122179050979655,-0.12920869659965067],[0.17767437574252262,0.016913705225880697,-0.2108311539630639,0.0692833552851557,0.052827503479972636,-0.14363416182584038,0.0788686213301904,-0.21054690047947472,-0.01658144646054739,0.192058458070043,-0.16422958431306778,0.29991999773440947,-0.11219542479224864,-0.05787453122667379,0.13847873932300062,0.11371904986036273],[0.28203588449491146,0.062345921617001816,-0.004369034215019572,-0.10662537739967613,-0.5750237556606708,-0.3673233809607824,0.06855354899876473,0.40141167192237615,0.36644232507695784,-0.09189341742836393,-0.22438063284593648,0.15646578574296796,-0.14797355688790273,0.06818400852980035,-0.17887150157239867,-0.009156248442311034],[0.00524201854471009,0.0016476571732372382,0.0044333207904544494,-0.0024506715298616673,0.006131049097244885,0.005799991844452312,0.0031939665682075014,-0.0015792057267385502,-0.0002424288359817722,0.008521468815791706,-0.007416587880940568,-0.001832399726205841,0.01005839090767461,0.0034635266825154185,-0.0001349891063999025,-0.0015904157150140508],[0.049843424071808716,-0.3467177092372682,-0.030859096003938696,0.3335189773389544,-0.13211680577633536,0.04920600217037205,0.494200806650233,0.08371313244112294,0.37831662350466555,0.07436768052970699,0.6592321587166144,0.27120655888746376,-0.16938618772529784,-0.05901021915228107,-0.14319116988266634,-0.09199551334184457]],[[-0.0004745174014914972,0.0016592121397081285,-0.0020629314222553904,0.0006218256994086382,0.0024390221216793653,-0.0011796883321870863,0.0018223386751917967,0.00022532618346869591,0.0028844821665887413,-0.002538682018048509,-0.0024089011139553887,0.0018665945986447187,0.00028434948343040566,0.0008626144933513975,0.0010457878565412221,0.000515150508116477],[0.10819580360360474,0.24499627527526274,0.0653678963411218,-0.0006357106657265974,0.15780893038845095,0.014211851652789275,-0.13767705476578512,0.5624204864951212,0.04176792759660157,-0.11667795792482216,0.12138713976795848,0.43396042799709855,-0.07983011169361806,-0.4296096540011161,0.0006441370516400642,-0.23941491383789323],[-0.23203318387159064,-0.38259653939856486,-0.10615105902744795,0.000749630765536132,0.021982603862380067,-0.30658536305780315,-0.0337368105328794,-0.21896469319547177,0.05177338122071357,-0.3304940872217355,-0.10907133098720691,0.07655707420862906,0.009547247042283024,0.43097250209648724,0.0032516095639539317,0.08181617881984055],[-0.12489824831857846,-0.24415115055296396,-0.19496683204136542,-0.0007870737418466626,0.03459382299491329,-0.2578867765316507,0.01102506250537703,-0.3097342657287341,0.11232855022398697,-0.1311624000990215,-0.1075000439052945,-0.12134961220290373,-0.02402889938574815,-0.038763236856110356,-0.0017181851453600132,-0.23374953098650644],[0.22804872636232912,0.12728912082162144,0.2516448468673245,-0.0005977476406976449,-0.0051108090399607994,0.13954393074712762,0.24773121262727776,0.08121808408992341,-0.10613007709539699,0.022584735087469096,0.05244840425578738,0.040151638676324805,-0.02072699627964389,0.04751158733802451,0.0004280689165360191,0.21090128072039493],[0.010072008824082282,-0.041411449968892226,0.022949554280002362,-0.0016031782431455558,-0.40561561270701313,-0.16022240473477053,0.10776881948575016,0.032398039997375595,-0.15805721281228927,0.41869679668399096,0.17338386773589584,0.014834791200478864,0.02758199076155896,-0.16365438953526024,0.0002160387986114522,0.09587364101794027],[0.024468188957953593,0.022284763497445383,0.022779885966616984,0.0009330756796293498,0.01982716376899121,0.03544249000332288,0.05038368245532776,0.011691508783138722,-0.013451170340440341,0.01191746838405785,-0.008023565658826944,-0.01886202035022332,0.0004098365467755166,0.039624871218834054,0.00024190078152317747,0.048139182691559965],[-0.1825645140786541,-0.008374419800158734,-0.7680311638340351,-0.0016871087544431907,0.3069337249300113,-0.32672796450527386,0.3592384240603035,-0.2771657230420246,-0.04489503040498369,-0.06277274999353477,-0.10540400006063251,0.09853530403593938,-0.15036606883518644,0.17099163092911798,0.0004203207186768032,-0.013194985520575402],[0.38794265968093217,-0.1796775979633749,0.13364514545814177,-0.0002896234008203123,0.029983934363598815,0.42816110449352396,0.430877333077236,0.056568932054559554,-0.19778981034900645,-0.18782485478121033,0.16303736512232836,0.06458651389098574,0.013683113511315086,-0.09522777689499923,0.002782653850390569,0.2458995673587431],[-0.013828059250926969,-0.19318062746954556,-0.01510092001760383,0.0007292548979311468,0.17898335380624414,-0.13169548048426083,0.08379314127836694,-0.17256670854388598,0.10105832393407746,-0.09939942480389548,-0.11276210268723053,-0.010686110413700673,0.06079974627975951,0.4032022643107033,0.0004906979236421736,0.012308565723868474],[0.14216370388063718,0.1536641452271712,0.00634730582810623,0.00007729273889226712,-0.06345815748024793,0.06618176478688442,0.09121864073864862,0.08720840238745155,-0.038866471028721324,0.07894678047462454,0.0454976066051975,-0.04957820224116733,-0.010027070441096011,-0.12093584682462057,0.00016806521039284693,0.24319909623067723],[-0.04493213022010836,0.4921296240416746,0.12839742951341657,0.0004340249483491338,0.2842743607345883,0.11129610212952536,-0.19498349060834813,0.4435703618396744,0.2082858732983337,-0.2117944355144349,-0.12658794464051662,0.17864671579022107,0.22654743881362563,-0.25110321473574526,-0.0024678727016039367,0.10334680471455315],[0.6883811804879728,0.16035161104958554,-0.014921572933738875,-0.0019484811035810252,0.3194003234802333,0.4834250208592515,0.1911816813481011,0.23172300482058755,-0.6646331868975989,0.15721338395118392,-0.5139285334244164,-0.1494691231521807,-0.027416283699024473,-0.3139539511508842,0.0007444325533116863,0.23694957328709057],[0.10193350788973006,0.24180669990045472,0.22800055995640492,-0.0019432511148368622,-0.08587879836829888,0.16742224540045372,0.5098802524994311,-0.07761886007452665,-0.09214190021287115,-0.2250739099644895,0.054833111838992636,-0.024875163249123068,-0.004494183939407397,0.029117723159861074,0.0013652823426419949,0.16643807049632678],[-0.17349429132035943,0.02507205231481167,-0.22117870669009615,0.0002674330324360978,0.03117288314748537,-0.19260585016802043,-0.20596727354188082,-0.13407075496238222,0.07275158092207074,0.04729070970238706,-0.0483978771746928,-0.008500152471132307,0.004413628721262951,-0.00026316831077740266,-0.0006179524770920351,-0.13893830783075947],[0.09511381685634608,-0.14960020223180517,-0.09707003470468858,0.000695360239793048,0.09014986786905531,-0.2263366882885332,-0.25547680940557105,-0.1713473245491462,0.0770899237674744,-0.016687939271660686,-0.09485467138916134,0.09097093942804131,-0.03270394118109193,-0.02231164217644459,-0.00221435044994434,-0.11507207400860585]],[[-0.0007000960657799849,0.8524764217325616,-0.40333969636312805,-0.4534270161171063,0.2211733971152275,0.3741926175806986,0.00009011126042030888,-0.5895988846693524,0.37390149829891006,-0.3161897895298909,0.086729340070454,0.5034589925271127,0.7304825719357717,0.261787617864218,-0.16587896722664802,-0.3052655348518667]]],"b":[[[0.0],[0.0],[0.0],[0.0],[0.0],[0.0],[0.0],[0.0],[0.0],[0.0],[0.0],[0.0],[0.0],[0.0],[0.0],[0.0]],[[0.8428915229712539],[-0.8078212212428193],[-0.7052099353183174],[-0.03912404021931169],[-0.48151485267044686],[-0.18008182792190355],[0.4121845585461702],[1.1756407323358689],[1.0037736212270938],[0.2701992088985561],[-0.8201474326220478],[0.9911140030004569],[-0.22008859614602136],[0.023961318668083615],[0.04208137129212372],[0.712179534443367]],[[-0.44183750881901135],[-0.17496647204954813],[-0.11876278335770164],[0.029210526783562896],[-0.5956639532904257],[0.346107327378002],[0.04695780303453342],[-0.0359896008281793],[0.3356478716316622],[-0.035844970709155474],[-0.19574322115172568],[-0.005100928925551296],[0.38953184024156584],[-0.3376995741183537],[-0.319833279262527],[-0.05044303152115456]],[[0.009852262890387743],[-0.3311252199300246],[-0.057312716273961624],[-0.003476446695580374],[0.34572246927250005],[-0.06287870626609149],[0.12073485994918741],[-0.31609187379914105],[-0.46007752220913856],[0.12795912192656472],[0.03793194871872762],[0.04540766806969177],[-0.16404630438673798],[-0.22730608312061948],[0.3595650808909222],[-0.18313312424439482]],[[0.23354756828656023],[0.13600934983118962],[0.2288440759485836],[-0.0005731464399388973],[-0.21890874823327156],[0.07942461501662733],[-0.19359507065608073],[0.2449118965071339],[-0.18836754676692394],[0.14699867387353996],[0.2250162158043785],[0.31139942944207305],[0.2387415079399913],[-0.5525506065460501],[-0.00810967438780133],[0.20381791867673532]],[[-0.0010143206913862746],[0.3560270089160146],[-0.38136644429479116],[-0.32423615834886477],[0.2927690914198942],[0.5168574614038013],[0.1909350458203183],[-0.2536315755426521],[0.23497433344436164],[-0.4558721639862561],[0.35668724790104467],[0.3446339886194849],[0.23590361710836563],[0.020558642945481546],[-0.3167838092333036],[-0.30605895275611095]],[[0.3907979663200741]]],"a":["linear","tanh","tanh","tanh","tanh","tanh","linear"],"mu_x":[[0.8000624860230419],[0.25174861581370983],[0.000011680330703219781],[-0.00007010955330898725],[-4.651761815743196e-6],[7.052822519410967e-6],[-6.317381412421554e-6],[-8.120831828772977e-6],[-7.286863599771892e-7],[-0.00004495614077247319],[-0.00003621546627780762],[-0.000024239222348692568],[-0.00003209621155156891],[0.00006445117249734129],[-8.121313959460051e-7],[-0.000012367974921588826]],"mu_y":[[0.03999820572514892]],"sigma_x":[[0.057711999938937705],[0.144317005215799],[0.005756910713028297],[0.005780214328454295],[0.005756146519655885],[0.005771288392791545],[0.0057731756839679875],[0.00577643349639307],[0.005775815680868363],[0.005777380176266932],[0.005773241478830303],[0.005770779969005194],[0.005799683529913854],[0.005777180321700886],[0.00577403065748546],[0.0057922855906964756]],"sigma_y":[[0.040345237752046376]]}