{"layer_sizes":[16,16,16,16,16,16,1],"hidden_activation":"tanh","output_activation":"linear","W":[[[1.0,0.0,0.0,0.0,0.0,0.0,0.0,0.0,0.0,0.0,0.0,0.0,0.0,0.0,0.0,0.0],[0.0,1.0,0.0,0.0,0.0,0.0,0.0,0.0,0.0,0.0,0.0,0.0,0.0,0.0,0.0,0.0],[0.0,0.0,1.0,0.0,0.0,0.0,0.0,0.0,0.0,0.0,0.0,0.0,0.0,0.0,0.0,0.0],[0.0,0.0,0.0,1.0,0.0,0.0,0.0,0.0,0.0,0.0,0.0,0.0,0.0,0.0,0.0,0.0],[0.0,0.0,0.0,0.0,1.0,0.0,0.0,0.0,0.0,0.0,0.0,0.0,0.0,0.0,0.0,0.0],[0.0,0.0,0.0,0.0,0.0,1.0,0.0,0.0,0.0,0.0,0.0,0.0,0.0,0.0,0.0,0.0],[0.0,0.0,0.0,0.0,0.0,0.0,1.0,0.0,0.0,0.0,0.0,0.0,0.0,0.0,0.0,0.0],[0.0,0.0,0.0,0.0,0.0,0.0,0.0,1.0,0.0,0.0,0.0,0.0,0.0,0.0,0.0,0.0],[0.0,0.0,0.0,0.0,0.0,0.0,0.0,0.0,1.0,0.0,0.0,0.0,0.0,0.0,0.0,0.0],[0.0,0.0,0.0,0.0,0.0,0.0,0.0,0.0,0.0,1.0,0.0,0.0,0.0,0.0,0.0,0.0],[0.0,0.0,0.0,0.0,0.0,0.0,0.0,0.0,0.0,0.0,1.0,0.0,0.0,0.0,0.0,0.0],[0.0,0.0,0.0,0.0,0.0,0.0,0.0,0.0,0.0,0.0,0.0,1.0,0.0,0.0,0.0,0.0],[0.0,0.0,0.0,0.0,0.0,0.0,0.0,0.0,0.0,0.0,0.0,0.0,1.0,0.0,0.0,0.0],[0.0,0.0,0.0,0.0,0.0,0.0,0.0,0.0,0.0,0.0,0.0,0.0,0.0,1.0,0.0,0.0],[0.0,0.0,0.0,0.0,0.0,0.0,0.0,0.0,0.0,0.0,0.0,0.0,0.0,0.0,1.0,0.0],[0.0,0.0,0.0,0.0,0.0,0.0,0.0,0.0,0.0,0.0,0.0,0.0,0.0,0.0,0.0,1.0]],[[-0.01236241102573218,-0.13554701617631493,-0.12130376229903575,-0.02593600745567902,0.07048279412258689,0.05307887739130246,0.037792528323162565,-0.055535338063270476,-0.09616343326026279,-0.15216250724433175,-0.1797986993643947,0.026398059580280887,0.06042623276810401,0.2403336189311422,0.2865536438682108,-0.04034549350014831],[0.6239503467302855,0.09590222237896369,-0.008682187836855558,0.07956943497232723,0.13207496227024504,0.01093531345963474,0.027009902672773683,-0.018530541624605063,0.013244058584120495,0.052219909227037155,0.014625750374068054,0.11416055684618649,-0.06689792563633347,0.014226373906015511,-0.049656107817480255,-0.03263295109173353],[-0.1298399388391417,-0.3301377262608885,-0.10736947899782687,-0.1005780884795121,-0.08490562592469508,0.09128435570037859,0.27838522869435073,0.3764788519306298,-0.10126210192337347,0.03877746727816159,0.09516707725307741,0.11602485322622554,-0.13543796608357994,-0.13450406458299113,-0.14288341276785313,0.02276430486365463],[0.5200095209741228,-0.18562498598472704,0.07509432341839957,0.11780920418031245,0.06541112158128487,0.01626172296096058,0.055649636200137104,0.16423147388227707,0.0033354102737948544,0.1837311464702145,0.18182445036157427,0.04905951387290842,-0.07683511423844333,-0.020135686545591547,-0.05772395172057538,0.0004757720871246435],[0.0632393748852999,0.2448277280103094,0.07115169445232666,0.01607569352874236,-0.2515169823221378,-0.1867800622600824,-0.0719484789433017,-0.1044529843998661,0.07119363085310645,-0.18805771283325162,-0.0020242565950024803,-0.007101114250948265,0.12034211220537758,0.08701207264773546,0.13511215347645245,-0.08636839336734872],[-0.445371442964489,-0.40030553387756923,-0.02770632982156494,-0.05037987891483617,-0.027654881691054196,0.02039952413176352,-0.017703216955246952,-0.04962178513881685,-0.01670555191390429,-0.0752644181102797,-0.08025219521745122,0.06230704060388925,0.1966094418150137,0.010431647337345163,0.003247112879999416,-0.05305316058559186],[0.00016452278035455838,-0.13838275376664033,-0.04026738119497901,-0.0612825232382418,-0.16190898620563296,-0.11771181403894919,0.01949570532861865,-0.028216336070036506,0.08780697863804479,-0.01800084683284614,-0.014152892858875657,-0.15758304525237035,-0.043246750362139624,-0.19910559863847338,-0.17225124537154446,-0.328155264713944],[0.1218839780537172,-0.2237930840480301,-0.10640983797884089,0.03897566691694071,0.07643406076125957,-0.03487241663094052,-0.04718024732158117,0.046803543174118244,-0.1065692955880754,-0.060521583509717335,-0.039010973233602704,0.06907909030067995,-0.01256969994943614,0.05691307008956736,0.01800926528832189,0.21549743835145996],[0.4116235191700413,-0.14921146035081878,0.03549627382054769,0.12353002049542942,0.12984746322282947,0.04728758321824616,-0.05204165111282698,-0.10950334920542928,0.022645232345516256,0.09534169364837215,0.011796366828136841,-0.12129677388701061,-0.07388889734873975,0.05565181965696875,0.0851914294953863,0.014392652390286328],[-0.16787806039651332,0.059457482251549336,-0.039706776794737074,0.00832592192522022,-0.020365286842895496,-0.06579520447148221,-0.04168920985107766,0.04799428535057159,-0.036827501192334924,-0.1510657233515914,0.1077178171132108,0.315687310830981,0.1672178624322182,-0.11054504231787907,-0.19340220045996412,0.08179930641999196],[-0.7321631441875853,-0.06443942274158475,0.05368221358407829,0.0684865165548691,-0.06178775380292401,-0.15844015778395523,-0.02740933185363297,0.07032187881817642,-0.017292586651847304,0.07582076365384409,0.01330937711328031,-0.02301081125121218,-0.11991718983904566,-0.06386118344898055,0.18244428524128975,0.10245718078539783],[0.14819321950920147,-0.009062532988290024,-0.023286511691911357,-0.07968834990207925,0.0036629866557499296,0.0019018870464300103,0.06206457013184878,0.08898126991604857,0.006732262821211438,-0.033943253305656465,-0.10212696694885082,-0.013643479461448057,0.13805511104405066,0.30070596500148306,-0.09402866361553171,0.2042937404108852],[-0.5161794011832325,-0.12727606700405586,-0.06161142705920144,-0.05666286037924698,0.011865859579871513,0.014848600381222491,0.046284229332401575,0.017532928593477846,-0.006367244358443187,-0.02030023882028298,-0.13314944930579284,-0.05771559204820017,-0.005076065249355091,0.1012316805961403,0.055543562894450615,-0.005551424950095515],[0.46982399497772975,-0.13093195888185816,-0.14985883775931888,-0.0734926913715546,0.025537245378124844,0.030958605791409063,0.09027717602467433,0.07913113262743257,0.05175153738126912,-0.27531829229231075,0.12294940368353101,0.3744235219936556,0.03279703287540454,-0.04350430133871123,0.14216990670621701,0.0755284741008725],[-0.18165275458044314,0.29851642201709255,-0.19982279689222185,-0.1308572004020807,0.1354367537188406,0.14827249939865533,0.10112570111268254,0.06582746975382757,0.0651523290182171,-0.06628782806875684,-0.10473135815374497,-0.07033276976450438,0.017424529849463983,-0.01618681604537762,-0.06472590929344864,-0.09366173656473928],[0.26693414337849114,0.14071690877356677,0.04561769952101699,-0.06585785335460308,-0.08191804773884821,-0.08916078591539572,0.04104022933721622,-0.020875125754587404,-0.01128210394609198,-0.06054105391920856,-0.013413585983929008,0.17249039341357397,0.16482604710928586,-0.05332546037030854,0.008266935722072988,-0.18258995826167873]],[[0.029358765676341332,0.10010037571543978,-0.2674219672556113,-0.12302974480572072,-0.10412645742237979,0.4131554104176342,-0.13174386836692722,0.2524625919722762,-0.2574424503788231,-0.002504193569146241,-0.1479244309185347,0.0992565179134836,0.44468939615538555,-0.16228362402986155,-0.16860814506384741,0.00896256461125609],[-0.2755513925913213,-0.216916163116479,-0.5317038629305122,-0.45447087340581865,-0.3276924458842533,-0.2803960401864156,-0.14843045443642708,0.14684881799569346,-0.275500441178784,-0.11204228442650604,0.08644158574059027,0.011117698177028033,0.01621655398024931,0.3022057801928453,0.1279179375486646,-0.30071557961417],[0.045774826850223806,-0.0129135938655145,-0.1067033352311701,-0.20329314158682837,0.2868830833267303,-0.03202435084703831,0.16766456968093338,-0.06327216269276387,0.08624842787195641,0.12315420077730216,0.0036161710280839246,-0.10741315871910552,0.4157191675290108,-0.04486630980954478,-0.6139457421297984,-0.1717301751187463],[0.0027130041167063145,0.16082634103612525,0.11001136837860519,0.42795441666343137,-0.4671658193356074,0.19558358012418006,-0.11073964214344399,0.2816819430684423,0.8331000785276615,-0.05233392726352755,-0.44419774598780637,-0.07234298301004727,-0.5160946919473779,0.20555513648816945,0.21498116773199025,-0.43695571447970694],[-0.06068726830193199,-0.12362590165181463,-0.06459381951850778,0.053419717630357896,-0.049408551370846515,-0.2426657963991946,0.14264360871721415,0.20463470141925164,-0.45191062159682194,-0.2656253597933997,0.3106010098254422,-0.23070424167891032,0.2369794646150342,-0.03432655245997739,-0.17259876188313333,-0.2649044440724509],[0.14366045153670498,0.10991056839739996,0.07835579219915963,0.07223167040547632,0.30556064600080624,-0.36260666033290545,-0.23385426921790567,0.330351855973883,0.4478159595407332,-0.4353955497827266,-0.1796127656117559,0.0007921695639917753,-0.3905754349824194,0.3845531529791339,0.21134158202855075,0.27436585164082566],[-0.135098603779288,0.37433306247845044,-0.039475856436368285,0.20993730865429006,0.034102098317425826,0.26180156193149406,-0.43673527682505897,-0.1734013444082403,0.38302595236053005,0.09183649536196054,0.1470153096386682,-0.26694145456155727,0.13178875876243282,-0.17421376867849425,-0.3392969711865545,0.3814175379036534],[0.13343883242329926,0.28479643974876345,-0.2026465582225499,-0.24508262797554473,0.21471104127375232,0.4558195821225149,0.06949382751540938,-0.04167147948614612,-0.08753256855089527,0.3735616637076188,-0.1941156800201101,-0.11076059838009239,0.17579909641331803,0.044825048455756335,-0.3690089474056046,0.10046163885914482],[0.07637685276021611,-0.26437201931976745,0.5110931312922811,-0.20988046244402214,-0.06696392789919033,0.34586827159484584,-0.1267081393314768,0.1275798865387875,-0.18895109550016084,-0.028746349331199766,-0.09252414246078448,-0.07223069171324709,-0.5381355295905065,-0.03980209830277602,-0.06372250938788684,-0.14980398540346182],[0.12723353501787443,0.3053278375189725,-0.25895861767289596,-0.012513016666655333,-0.06204474859461253,0.1292581029098167,0.20376008058675632,0.29324341671025617,0.318631150581473,0.407821304214689,0.44464756970559594,-0.1564351642828872,-0.250368201852257,-0.20195541777249762,-0.25345949177692356,-0.2150454986610181],[0.009099168597663455,0.028278893834302113,0.18407162049508635,-0.325749463339473,-0.4410320244882185,0.2521534076829419,0.2880202981659534,0.0656856027572767,0.015735548584621322,-0.07070986522190637,0.3796290974514143,-0.42840142610100096,0.30605976987676387,0.1604925674192931,-0.19785499363560016,-0.32140797537333327],[-0.11663898356616752,-0.06624310911168137,-0.025018668508365295,-0.15276480467784456,0.1934143018460197,-0.06809935235238994,0.07260829021412943,-0.3432358878001478,0.36458598476201176,-0.32182447071357007,-0.38134276804959194,-0.2698853323361305,-0.19536333207145234,-0.06555129575068604,-0.07359167208880267,-0.48701561446235686],[-0.2612499025356595,-0.026006871277020324,-0.08986876719369384,0.26133379206450613,0.11683378205231283,-0.2848379517529189,-0.12402554869989943,0.549443157817684,0.1319663728991452,0.004339420615653534,-0.20057760197160998,-0.10278398649591418,-0.3004843378103364,0.35764070726109776,0.05302836684078966,0.47475333831059147],[-0.359188302887088,0.1438075313526405,0.07430913668227898,-0.2585996305938507,-0.05341107379731101,-0.3848008284656676,-0.0793899806667311,-0.08301609559218345,-0.12773779230223584,0.39070397562487763,-0.3139835692876531,0.04723210789465977,0.09051810641116573,0.08091027608259614,-0.05218310080799354,-0.4332502675415983],[0.2075077603825877,0.15621146213146903,0.09257879062311715,0.07586004914366214,0.21210517367082116,-0.36480310741606453,0.06860360137091254,-0.24210846892308313,-0.24854185962820444,0.028981586746255592,0.19246661431546502,0.2921887963616312,-0.3066872134423896,-0.16834533897837506,-0.12367486585739439,-0.41021447876695816],[0.1330371752787564,0.07575703807824734,0.07671585924799341,0.01590029749856789,-0.08030106061651587,-0.15445389378943075,-0.21540538831753292,-0.31617449847734724,0.13520547575728628,0.10599555872012337,-0.1136301324602885,-0.3025190632290973,-0.2170217854124473,0.3789631900825178,0.016241421415332573,0.030740751920605908]],[[0.23403119152191096,-0.05522443047962802,-0.8063255002623133,0.12380475258095792,0.04817168825942429,-0.13448160792725464,0.04809243531684979,-0.089942066378942,0.38138164514027956,-0.28360225325460375,-0.025124942781502558,-0.10344055228851247,-0.05192022272494698,0.21207201855594165,0.35423006587494,0.3198074488695791],[-0.017740475796677823,0.14709661430252208,0.37978094901427084,-0.08808726539275394,-0.19458403671127034,0.21111211571209879,0.21880488687248692,-0.22644472652380812,0.20206984039434914,0.44051850917463037,-0.195890576128509,0.30610262012881945,0.004258392773327171,-0.042310108708161605,0.36059909067932955,0.26024201240658607],[0.21195884543189336,0.3380401362708899,0.22002228913478283,0.43010391175772195,0.3096671571171335,-0.0850433590208045,0.04802137258319231,0.362215906337981,0.0012959514877219384,-0.10523360686608227,0.222785118422925,0.36321670928407307,-0.27331404124981734,0.21334209853202496,-0.275509079692308,-0.3278962196489297],[-0.19917196865276784,-0.23588364608695056,0.1793303308034823,-0.24242919601178278,0.3451912697028219,0.06373050222371951,-0.16453242068210078,0.30333266530463915,0.15730921219923721,-0.047724866177695745,-0.34618966394321654,0.018318525985671096,0.7692988777967397,0.030990673668587106,-0.08484016909835987,-0.3692161054699096],[0.4218977620406663,0.07605063135433784,0.3351409217331011,-0.12773976606105542,0.5175785020600429,0.0977561897212117,0.2306603022380671,0.08996575661078177,-0.032340810403989534,-0.16759368596116514,0.04805886105425603,-0.1540009463226079,-0.29189261705031444,0.16755903935214772,0.5997631808543871,-0.16572225102270494],[0.12312500452176073,0.03236722962438061,-0.016420408722751224,-0.31338079683689973,0.22000623953574774,-0.32958417343582513,0.4394905131982953,0.5359414206066749,-0.06507362289409449,-0.18785796781345168,-0.2636683202595304,-0.038188516972647586,-0.39955747879767023,0.29696909389750165,-0.29265288367874215,0.25374181599707807],[0.45505604615853057,-0.050525100267777505,-0.02615316106475669,0.17980139601989134,0.1829897032499697,-0.04962233368424631,0.05850011892280931,-0.3611451403275024,-0.2700705874246695,-0.11103710143065727,0.6178031392632497,-0.10739684458644183,0.06241342906188964,0.26342336275793454,-0.100198807758442,0.1392599530741456],[-0.07931270682432667,0.24469306339805863,0.0033725374915013406,0.23740180499887195,-0.6501562068286693,-0.16408609231838184,-0.12279586339410752,-0.0019301127833610755,-0.011143527772332034,0.031045932569973653,0.33217442258071667,0.10309378556077906,-0.0216506848645559,0.07577142544889935,-0.0028126405939718183,0.37186573549741675],[-0.1337230127518579,-0.17890806899123998,-0.09931204837287727,0.16030352572557682,-0.02306665173146285,-0.19786054383157084,-0.5207816384223833,0.1409433667807781,0.2629524259402965,-0.04290917992715988,-0.10573158059633864,-0.22583701309184856,0.22664541946015831,0.08543019616034378,0.33409902794133456,-0.2997817645820804],[0.5188927186146834,-0.0910353117943704,-0.2731867933248137,0.14660008416469425,-0.7300602640412653,0.17068661169000937,0.37576064921561025,0.005861767550389915,-0.22559525241200298,0.6530818082068536,0.052226333699086414,0.24744537130133673,0.34156823050100243,-0.20452064438458425,-0.020357157676252843,0.05597057102281315],[0.4702191476024254,-0.13411594635695634,0.11216535284350355,0.2675688799307085,-0.05749565336420488,0.3465410842675357,-0.038804249513652515,0.13352490518277327,-0.11044521179493819,0.2572302545965101,-0.45539755364955425,-0.07997735313676627,0.08338621567112058,-0.0779692837156674,0.10962887026975018,0.17501432994482835],[0.55832681665088,0.007726114485576186,0.23439209035087,0.3229378788136227,0.1541088873594257,0.4610420815142021,-0.18692788918068914,0.007874887860141067,0.648681374162229,0.14838546314596807,-0.3087710289195357,-0.23212647914105333,-0.2853342136875778,-0.22311498565275478,-0.296561292704656,-0.46193259519013147],[0.21240023010600767,-0.23586482102568734,-0.5702994968397193,-0.04018415889530833,-0.01874003212016206,-0.1330007522121764,-0.34240833243558866,-0.10927322122076737,-0.3004829622626374,-0.2735741767074036,0.24388915181213197,0.5508108531887542,-0.13230577129462448,0.08399729817172165,-0.15363737070966876,-0.5022444526874046],[-0.004589961972674589,-0.18764014466570225,0.08760872483930086,0.2577106218272003,-0.11312006050946462,0.02878752248525088,0.03587892691932544,0.20463654996698682,-0.261629411035026,-0.12262664554244734,0.060539593591578705,-0.3100790879371815,-0.22031758908438012,0.23470476968335702,-0.08953479040179571,-0.07651384728150946],[0.3213321237916375,0.486965120732502,0.3436837666035004,0.10977161123251272,0.26227570385315974,-0.0988009719005401,0.15202842089210286,0.075212835025111,-0.0874702175654001,-0.66835152725302,0.5092586466714992,-0.16354006000379484,0.0027216139481593482,0.04539900847393166,-0.08223295748543465,0.33475410300127806],[0.1665212524689898,-0.4941215276738982,0.06441894992526168,-0.039052114057253104,-0.05046895694001468,0.19344829235863278,-0.08306357701723933,-0.061302628025081844,0.36981590981519186,0.10146848353653684,-0.2343991125229883,-0.13682853451372107,0.09319641119995013,-0.4397129399762963,0.2249822867873438,-0.34439084249828517]],[[-0.3225925725060571,-0.15361617588490395,-0.05086425072793824,0.11905543619362272,0.17955985978609718,-0.1795682306371672,0.32815982627575174,-0.5019458143939413,-0.26623097235025767,0.10119019980475712,-0.34232744624277944,0.10100440529605693,0.29662832136879075,-0.09233254227967011,0.2314481953224961,-0.005342305199228254],[-0.24132774656373948,0.40868084880059896,-0.6001968831617899,0.27825789280381197,0.1145616333900508,-0.27626493527547846,-0.09471427061666758,-0.3787012718197742,-0.33761532943856326,0.3715233016696193,0.42395219757024305,0.3749651482967177,-0.34099302371356494,-0.5110389329268922,-0.46827843416704357,0.32171030502338677],[-0.24009100338001374,0.07562487018448268,0.15701451007836267,0.418358074245852,-0.0620878317503178,-0.24874145821167806,-0.26340577127480247,-0.22118745623345068,-0.0008313799398138768,-0.02894431573425402,-0.26463194502842236,0.030832173523271986,0.4050348688608674,-0.10278340005067578,0.05887281825243197,0.035297104738942216],[0.27655196326951215,0.360760944272028,-0.21044471293324163,-0.14110564371606502,-0.1573489071756278,-0.12102530285561687,0.11074452807407623,-0.15920960551839736,-0.3680285147740613,-0.23714423990953948,-0.2958936621680546,0.3347665331854051,0.021310872083639465,0.5341312489796756,0.10444601864822911,0.12759451375128156],[-0.15671657107346595,-0.12328903158555188,-0.11006264984572146,-0.17341743263590995,-0.11154115157130351,-0.36290182728346637,-0.7757630586984512,0.20347544210427795,-0.07698930145271574,0.28639928105974327,0.17242745140727256,0.6973504919434559,0.16888078308751547,0.34456675489517,-0.35023189045039177,0.09105773169174945],[-0.12006114197784863,0.5945120810569381,0.09351634467174506,-0.2743780391974621,-0.06794808863780533,0.367425861666434,-0.07055973163174634,-0.033674941219171146,-0.39837077124602627,-0.2324177809247104,0.2042021730893927,0.28969335052926026,0.1520022447240205,0.3366866136201214,0.2437362637315999,0.013187933157200283],[0.38580941672965996,0.3360711205711619,-0.04570031975242846,-0.20529412564594304,0.06376682817677552,0.15960272011155477,0.23715100067109432,0.41770088637382186,-0.24073349208323885,0.08940018218557186,0.2506818767033664,-0.26767843228632665,-0.1298726599950298,-0.19979532634407215,-0.12023675424970724,0.0594572155195696],[0.18145148278955336,-0.2359923862968332,0.09390483914731626,-0.4734875940808322,0.13864452541577194,0.25010168355804224,-0.05646408296376225,-0.05437942092819135,0.1256854441241418,0.2667455977994769,-0.29629027289389315,-0.06973136386273639,-0.2976311589888776,-0.17143758694742592,-0.17557646431529486,0.028759802800415284],[-0.5024930217327361,-0.34643007872317494,-0.173214329397051,-0.21197550912262259,-0.15938258493623658,0.0648895325643162,0.007587204517873694,0.17833096971043874,0.019316365842459944,0.42610618443687265,-0.03590637786727892,-0.5881463258805384,0.13235188026315273,-0.21949764282072168,-0.1087356609043703,-0.033067568957954444],[-0.25667266968781993,-0.07687903597527647,-0.4821789184795637,-0.04618163324455414,-1.003023912868476,-0.49935767724853775,-0.20269177675948438,0.10269955505062334,0.05367005140298844,-0.3655935568118692,0.3367290364201769,0.3884189168641013,-0.19752572685012024,-0.0726852239777341,0.11529070330884351,0.3054273657487081],[-0.4795438051949386,-0.3346652519661147,0.5085734398204997,0.07771938941857824,0.06401407593740766,0.3435841183726576,0.06623075037146126,-0.09027594508996545,0.2883292985755226,-0.08956401045878948,0.09143740657401583,0.3204359428266257,0.3961068032281396,0.5816267909872405,0.09542706788582583,-0.0647916780686645],[-0.03247707791287153,-0.22549619845449254,-0.07216137107230892,-0.062289371528910085,-0.25477181672414545,0.2325072544409546,0.04145076740485547,0.4867113232282075,-0.3209893853777597,-0.10830433264878767,-0.07916790919802152,-0.3940045806010086,0.33948589112303035,-0.26105692554680404,-0.2083985006359109,-0.5542514108220726],[0.13579751823996333,-0.3856266328108021,-0.07175719656106891,0.5718142118640064,0.0802557334878884,0.6301029283551551,-0.5968180176840868,-0.19422392504002658,-0.025666127227842603,-0.10749699916966943,-0.25653197212160483,0.32750269676449145,0.021886161852457228,0.33560789316677403,0.11365899720567979,0.2578045522019081],[0.43890212539355355,0.4685087179959655,-0.32693492167118204,-0.1361688716441162,-0.32155771030827,-0.05503264752736546,0.05693862440591649,0.23104912447323053,0.20347353383382152,0.31133117923368825,-0.0684426834855073,0.09475015538818402,0.47734340985754464,-0.4030636682741446,-0.6988092472866339,0.2429995942789182],[0.3628732536623598,0.28965003688218766,0.20730315004328354,0.2440801854148183,0.08953581010786736,0.0995450456322546,-0.05664130644166403,-0.3318976122819051,0.27146965395932116,0.02147504869477831,0.13779151555454047,0.5309031104334913,0.17284623858113551,0.10203160482468669,0.18783419675279237,-0.1245826774984268],[-0.3919891058412121,0.22977403608346372,-0.1049432079204389,-1.074217326258681,0.18995843912010174,0.296644477586788,0.35375315077235536,-0.26034606595774856,-0.04395168203741696,-0.11108889292310928,-0.19888106161655755,-0.2059918209596303,-0.06012838274218391,-0.09956512100955639,0.5739938803753861,-0.2624071716598668]],[[-0.462442408333069,0.11271224702642418,-0.11833875167753345,-0.3399541409510888,-0.08487108143586618,-0.2357730976459095,0.35936262966056876,-0.05802955330288063,0.6804147474995321,0.13160194854102486,0.07229906071492287,0.19140040975302072,0.3505350955749225,-0.006183739852185843,-0.10922474409128519,0.38783921091230067],[0.2713102167993164,-0.24239047830291155,-0.08534630683685689,0.10378081401739206,-0.015198204999053881,0.2450337448942628,-0.35138697436182503,-0.04913441767354918,-0.3823939598922487,0.4371158623713273,-0.18405000674271968,0.04655980701956799,0.025521713611585634,0.14615842434189685,0.28655826152584607,0.13221381286235925],[-0.353460250895213,-0.32187063707120683,0.2659518658515103,-0.016983981805551374,0.3270823400023613,-0.16434470325042974,0.2174435020003076,0.7653660424771718,-0.16248793245528914,-0.33082904087699305,-0.2227709436161821,-0.41204736791861957,-0.03709156426451153,0.20477252701647639,-0.12663047134770342,0.28977094403317744],[-0.1978262873631417,0.5198698139171677,-0.14057055898341653,0.3523601760072992,-0.14215804137281843,-0.1668088640859655,0.1021057033648942,0.5568046601760117,0.12514457628252093,0.07971461234096804,-0.2973164077224842,0.3595562536582073,-0.22338110122546165,0.5628498553297839,-0.30521205257468553,0.24882065197972497],[0.06336415281196096,-0.6878308537617975,0.34901707430982043,-0.1664864638723385,0.15495849742735401,0.06861516032474103,-0.3216701972209653,-0.25495952955904266,-0.29755489725712847,-0.7050642852999522,0.6846027322047742,-0.22614706079675795,-0.005670024085171639,-0.5890402807831887,0.4346600956856145,0.07486557475950291],[0.18401444827894467,-0.1677972040151049,0.0234862847880932,0.16711413537536585,-0.2840503356542974,-0.1668030862829393,0.14673181887319817,-0.41596120099958517,0.1571511560634973,-0.43445713555349696,-0.21775294897325514,-0.29728060092046465,0.16015966298142598,-0.2849329733383395,0.5301057773240182,-0.1548734446835652],[-0.06456378117462297,0.12969349015236875,-0.05328238293952428,-0.0974324700215208,-0.2544583893171196,0.09227363788284419,0.2661138820104303,0.37826278754996595,0.3422199716228347,-0.3674657611315122,-0.1892824955187335,-0.23719268425670198,-0.3598364630299798,0.3442475776371743,-0.0372005373140903,-0.20525643745657343],[-0.2735641081427072,0.07462288544463747,0.2674350586515762,-0.3372037295390281,-0.2181530493931115,-0.04777681595518728,0.20919189989724363,0.17350184312990938,-0.0867224239696697,0.16080875710838208,0.18655532757939552,-0.13221652283038937,-0.1274548178267576,0.1447398657530823,-0.18155169054337447,-0.0017922088753088408],[0.4082491769650483,0.0934894113729093,-0.4274203225307026,0.2752682283577687,0.06332084420101829,0.5009217158344945,0.39230040680443307,-0.012053750139777459,-0.3705561905501731,-0.27546755974541154,-0.19688279356731364,0.22940144241993798,0.4500982146836731,0.11489540044228824,-0.06783739162240321,0.02638727516692833],[-0.417518409674986,0.07930807335608037,0.22075456938775503,-0.330758450505079,0.08263912981618204,-0.429654404932574,-0.18607340543472722,0.4955972177942135,0.277087648980801,0.27356841263666437,0.23535772246757483,0.6647912860974303,-0.12752455574281907,0.05120217078451495,-0.12625163276994947,-0.6683121038808489],[0.32212467045714,-0.22089229275606234,0.042198448147477384,0.4246763765623744,0.35451492470597396,0.29725810503395395,-0.09935425262088429,-0.22779217215279907,-0.11895496290572595,-0.1306244985158693,-0.22056058683555194,0.14661377127230896,-0.05663745418909018,-0.33806980387364755,0.06833171958485128,-0.060020001753420246],[-0.08256076052069614,-0.06939884594024617,0.2292843173526605,0.029292194721208586,-0.2862061098614336,0.15528390416241958,-0.059789727015523264,-0.5483428705767969,-0.16237523037373558,0.06250264148090308,0.13614014053739476,0.13717087800457745,0.19230031344209528,0.38425460852888343,0.17627581387685975,-0.14065670251549084],[-0.7326397241905074,0.11642393551240825,-0.19755854089344624,0.24138766976685117,0.17295233294445106,-0.2800457523119839,-0.08629684215259524,0.0805448686900229,0.02724600077665597,0.449276095171072,-0.5149723353911171,0.13188144896031684,-0.12982792474315166,0.895214072593726,0.11176734422212041,-0.17120016688682183],[0.6090495897294802,-0.1364533872315968,0.012655897339101543,0.07570672507322954,-0.8218537033461312,0.1472365556804125,-0.17128773894390614,0.08779233194876211,-0.03279874996683987,-0.11802950126528515,-0.1789019148685269,0.029233820886855527,-0.04716107079663217,-0.11731542511341822,-0.38032327634625424,0.3044434951642061],[0.39850791545093206,-0.30443652582471564,-0.01612058386994431,0.19767157089469914,-0.16804566071163157,0.22710527300105318,-0.1422450668265392,0.1047784372852212,0.004835714822818078,0.05060719764865026,-0.1423527152287798,-0.16909667484000335,0.07106915425150832,-0.5710851322141404,-0.12185161647917367,-0.22185850582929642],[0.3117596495073826,0.1212865945409844,0.2641345814315521,0.5117980054487635,-0.3383587518552947,0.25800466453187426,0.18162096441690492,-0.7853797486859029,0.32727431546544433,0.11787843145732443,-0.3069467006916084,0.6908630639758592,0.3158110274978618,0.28098666314499304,0.1529101478597503,0.1594210933367429]],[[0.24322113423363645,-0.4150201775115626,0.31512780452829886,0.15964837611107463,-0.5313816533355911,-0.27638749616226677,0.20569397759483446,0.2975600005095409,-0.42150660211984664,0.46997993429364515,-0.42015345598257087,-0.25561021303715364,0.37856832827816217,-0.3064437172458056,-0.3029111345183038,-0.3232328692619682]]],"b":[[[0.0],[0.0],[0.0],[0.0],[0.0],[0.0],[0.0],[0.0],[0.0],[0.0],[0.0],[0.0],[0.0],[0.0],[0.0],[0.0]],[[-0.5188907741889921],[-0.38485553080022183],[-0.5064047880296887],[-0.2733688868636414],[-0.34086067259245467],[0.15537000157601147],[0.17404780695365504],[0.2594681873840762],[-0.4989375944029472],[-0.38493838687912096],[0.15126331971926626],[-0.3863366496137322],[0.2751852062398081],[-0.09523947430533002],[-0.2614756181388646],[-0.2315375789999603]],[[0.18862075473298456],[-0.09058873505042918],[0.04246693094782042],[-0.07972017145850484],[0.20263125437810106],[-0.2399133550143811],[-0.15706936342613598],[0.21892232480044993],[0.2649821898149549],[-0.20211733782500765],[0.12574197785812818],[-0.14247625862061272],[-0.030522928071992597],[0.06253740009100187],[-0.09587016941319164],[-0.24683196783987799]],[[0.05096204705009862],[-0.285820155303822],[0.133550573835557],[-0.10066581984708337],[0.08166640141546604],[-0.07701291122076333],[-0.3023459173254864],[-0.012765969166692625],[0.28569324542979224],[-0.10227782732179959],[-0.1091058034068851],[0.06072872364390531],[0.00026291310836593155],[-0.12225611631840042],[-0.06495960666638766],[-0.0308114555824002]],[[-0.07697231840908],[-0.025516485855876996],[0.2496037477617052],[-0.326333293471214],[0.23580567383421974],[-0.20294772496165644],[0.10336850120505156],[0.28852903840782007],[0.12816353290561208],[-0.07018087020225164],[0.1361367616082896],[-0.14459951236496574],[-0.015376302552928317],[0.009806323683190146],[-0.168650144841647],[-0.08067555372066468]],[[0.2995673896865887],[-0.24310467703867925],[0.30103201329454304],[0.2200501977249458],[-0.041121674502487875],[-0.22766483377249888],[0.198815360865271],[0.26637253875919764],[-0.2691688930582517],[0.16062089978989882],[-0.20780866310743246],[-0.272716023191433],[0.10867104028610904],[-0.21116016256150624],[-0.17962242654793392],[-0.33325467455189806]],[[0.2617791348446438]]],"a":["linear","tanh","tanh","tanh","tanh","tanh","linear"],"mu_x":[[0.7988060088757852],[0.23710570791573238],[-0.000012873041586299612],[-0.0005178132210864072],[-0.0003742515932550968],[0.00033531934009845774],[-0.00007435742101084402],[-0.0004017229797862836],[-0.000037621954529647046],[0.00039299340574224824],[0.0004360617256148975],[-0.0005311464671718312],[-0.0004254635262559342],[-0.00036827853554154415],[0.0003768316595749332],[-0.00013756077424207367]],"mu_y":[[0.03829859640894167]],"sigma_x":[[0.05666843762634408],[0.14167979778021486],[0.006009027941767096],[0.005689091064176293],[0.0057657511989207995],[0.005557148245745094],[0.005712582288728839],[0.0055521915940239825],[0.005642519618683384],[0.005877448926184834],[0.005591519137162049],[0.005988474621642185],[0.005951911783602989],[0.005966050825480731],[0.005718083637866688],[0.005767912673805167]],"sigma_y":[[0.03745193282415591]]}