{"layer_sizes":[1,12,1],"hidden_activation":"tanh","output_activation":"linear","W":[[[1.0]],[[0.004696757635521039],[-1.0096988591816392],[-0.003942456119885573],[1.0625507080792953],[1.206272324894257],[-0.6621591723558551],[0.9711766399595572],[1.0619450580250689],[0.8851226373172512],[-0.9433941551085551],[0.9706432701740917],[1.2191377432090804]],[[0.14891061095391933,-0.9092464654716903,-0.551863164960753,1.142292248980134,-1.086640984729162,-0.4402769841523575,-0.8501422309579529,-1.0021023905165591,0.7306511624468455,0.8159922362311913,-0.8103267605747908,1.341567716513857]]],"b":[[[0.0]],[[-0.9022309889923879],[1.2273292062626153],[2.1421004115230367],[3.355124777531106],[-3.8221077629162883],[-2.2051700354434502],[1.1771269685656087],[-3.371631178544546],[-1.059348686825968],[-1.1335654580824728],[-3.1065722416376107],[3.8394492551999133]],[[-2.3068691294182027]]],"a":["linear","tanh","linear"],"dW":[[[0.0]],[[4.5379322513006116e-6],[-0.00011328350761499739],[-0.00006136703527632107],[-0.0027130547068731498],[-0.0006604785736846336],[-0.00013922985162424448],[0.000099754433576172],[-0.0007525259940413254],[-0.000029577319264249835],[-0.000023339003059844737],[-0.00028155811065335573],[-0.0028610069563001356]],[[-0.002297478368291679,-0.0014909752902173279,-0.0057519126501870904,0.0021067022647840855,0.0001956516642712819,0.0003017320037691437,-0.001464826967409641,-0.0026494012374147294,0.00050562999198683,0.0013873362215550081,-0.0009500643603979411,0.0010404973005324544]]],"db":[[[0.0]],[[0.0006059452777532198],[0.0010777764911284182],[-0.0002499163637342713],[-0.004877187684937249],[0.0019885489539232994],[-0.00008814660634554527],[0.0006254952394774416],[0.0023218793322947492],[-0.0002667125641956465],[-0.00028881331360450756],[0.0011072750176861926],[-0.005917090534975036]],[[0.008386192650010175]]],"mu_x":[[0.0]],"mu_y":[[0.0]],"sigma_x":[[1.0]],"sigma_y":[[1.0]]}