{"layer_sizes":[1,12,1],"hidden_activation":"tanh","output_activation":"linear","W":[[[1.0]],[[-1.3064922046796374],[-1.2304934906883747],[0.8174216616031311],[0.9172471522026957],[-1.2334881260924973],[0.3359879010261562],[0.0035726967490549576],[-1.3002216150258652],[-0.008919035979119456],[0.995300403218513],[-0.7937297516279819],[-0.8862652608446289]],[[1.3030239599572522,-1.2350676681198605,-0.5532251963616526,-0.6666021040377367,1.159071052361016,0.09971254129718876,0.5773613595076336,-1.2784216932824621,-0.17421867117676032,0.8779468556553891,0.5281152127447064,-0.7333872938541653]]],"b":[[[0.0]],[[4.10818283473116],[-3.8313636706819265],[0.9190993139889232],[1.023389571420682],[3.8877361471597096],[1.6181805038820982],[-2.2802028093236943],[-4.0522410874854655],[0.808607111332372],[-1.0739928880055987],[-0.8953256021353142],[0.936873626734059]],[[-1.7615488602175615]]],"a":["linear","tanh","linear"],"dW":[[[0.0]],[[0.0004816114143095934],[0.000594102905068318],[0.00007853947842917375],[-0.00012801185199724438],[0.0006235866916947733],[0.004326732896209622],[6.907923800208754e-6],[0.0005747573540267753],[-0.000028740996732647345],[0.00008941627039219663],[-0.00014388635492725704],[0.0002086761155960272]],[[0.001263245774841125,-0.0007452886227118441,-0.0004883334000339284,0.0001922610556231337,-0.00006242675220834853,0.0019601220614817085,0.008355662267260889,0.00032299280619159376,-0.00012632474824931118,0.0003847513606915799,0.0007189577946730297,0.00009708565516014858]]],"db":[[[0.0]],[[-0.0025490500887810153],[0.002128934461148373],[0.00033655774879486934],[0.00016436701454825226],[-0.0017220686254622276],[0.0006880467788989413],[0.0001495471667740111],[0.0018305676089723517],[-0.0006035793880176869],[-0.0008282234237708785],[-0.00039953720003186753],[0.000053802700270156895]],[[0.006307255459487906]]],"mu_x":[[0.0]],"mu_y":[[0.0]],"sigma_x":[[1.0]],"sigma_y":[[1.0]]}