{"layer_sizes":[1,12,1],"hidden_activation":"tanh","output_activation":"linear","W":[[[1.0]],[[1.1067840223125727],[0.868167217949986],[-0.9396328800516771],[-1.1926434143953697],[0.8272043667004279],[1.024738671277064],[0.0032808459712070975],[-0.0028164369413285232],[-0.00005898921745433847],[-0.950434531213838],[1.2196089019356446],[-1.2375638429241]],[[-0.9447475494099136,-0.6762702888928142,-0.8325890599256094,-1.1350322977219007,-0.8933276750802494,-0.8864489204832438,0.4693274272568648,-0.47147409996791906,-0.0033239914632909105,-0.854521061537252,-1.1333425660638157,-1.4397412088773034]]],"b":[[[0.0]],[[-3.531655816947146],[0.9928030943401228],[1.1247328960268692],[-3.755916820171572],[-2.654884237762067],[1.1907616270389692],[-1.7292381182162417],[1.9443632664069164],[0.1578849679995501],[1.1365524033799594],[-3.8694962640912407],[-3.878611961217532]],[[-1.8872327345080853]]],"a":["linear","tanh","linear"],"dW":[[[0.0]],[[-0.00038689027519786534],[-0.000013756275789641309],[-0.00004001732999561747],[0.001443929031233887],[-0.0014051677874197671],[0.00012241111330489607],[2.7852753184310253e-6],[-9.388382290497366e-6],[9.068617897269893e-6],[-0.00002989944231222494],[-0.0004889693709842907],[0.002375799259365541]],[[0.0007196881820610082,-0.0005090727477030862,-0.0016637456426307293,0.001003050911444453,-0.007640643337819296,-0.0011280783933038732,0.0050006846881161335,-0.0049146230970029785,0.001054069601972405,-0.001916688718318186,-0.00019995476934412532,-0.005177983365879157]]],"db":[[[0.0]],[[0.0013256146327338012],[0.0001808541348162435],[0.0003675397334431023],[0.0024613914578822003],[0.0027586129772250788],[0.0009287948497659314],[0.0004028778760212515],[-0.0002691529875578263],[-0.0000217337160645736],[0.0003316320388490881],[0.0023785544351772343],[0.0051058916889677]],[[0.0072264913504379615]]],"mu_x":[[0.0]],"mu_y":[[0.0]],"sigma_x":[[1.0]],"sigma_y":[[1.0]]}